// #### Generated By: http://www.cufonfonts.com ####
/*!
 * The following copyright notice may not be removed under any circumstances.
 * 
 * Copyright:
 * HamburgSymbols is Public Domain (2005). Characters were generated in
 * CorelDRAW© with TrueType export. Metrics, mapping, and final output in
 * High-Logic's© Font Creator Ver. 5.0. The readme file "HamburgSymbols.pdf"
 * contains the meaning and intended use of these symbols.
 * 
 * Description:
 * Symbols for Uranian Astrology, asteroids, and personal points.
 * 
 * Designer:
 * cat3
 */
Raphael.registerFont({"w":1822,"face":{"font-family":"HamburgSymbols","font-weight":400,"font-stretch":"normal","units-per-em":"2048","panose-1":"1 0 6 4 6 3 2 2 2 4","ascent":"1638","descent":"-410","cap-height":"103","bbox":"0 -1668.26 1712 416","underline-thickness":"150","underline-position":"-125","unicode-range":"U+0020-U+20AC"},"glyphs":{" ":{"w":455},"!":{"d":"340,-1564r-18,1182r-124,0r-14,-1182r156,0xm169,-191r185,0r0,191r-185,0r0,-191","w":524},"\"":{"d":"179,-1653r0,546r-150,0r0,-546r150,0xm548,-1653r0,546r-150,0r0,-546r150,0","w":800},"#":{"d":"217,-691r477,688r0,-688r117,0r0,966r-117,0r-477,-680r0,680r-117,0r0,-966r117,0","w":1200},"$":{"d":"635,-427v0,-90,-70,-150,-162,-150r-199,0r0,298r199,0v86,1,162,-59,162,-148xm811,-430v0,139,-139,267,-276,265r277,440r-191,0r-241,-440r-106,0r0,440r-164,0r-1,-969r413,0v152,-5,289,116,289,264","w":1200},"%":{"d":"811,-3v0,158,-180,278,-355,278v-156,0,-330,-98,-343,-224r168,0v23,70,82,105,175,105v88,0,182,-58,180,-140v-5,-176,-299,-152,-410,-231v-80,-57,-126,-123,-126,-212v-1,-161,181,-279,356,-279v163,0,321,91,340,226r-166,-1v-23,-71,-81,-106,-174,-106v-88,0,-188,61,-181,142v16,183,297,133,411,230v79,67,125,133,125,212","w":1200},"&":{"d":"100,-691r712,0r0,117r-269,0r0,849r-174,0r0,-849r-269,0r0,-117","w":1200},"'":{"d":"368,-1661r0,545r-150,0r0,-545r150,0","w":800},"(":{"d":"358,-768v0,368,79,635,226,871r-138,0v-147,-231,-249,-522,-249,-871v0,-360,110,-663,267,-900r138,0v-153,228,-244,537,-244,900","w":800},")":{"d":"602,-768v0,351,-103,643,-249,871r-138,0v143,-229,227,-513,227,-871v0,-368,-92,-667,-245,-900r139,0v153,239,266,523,266,900","w":800},"*":{"d":"642,-207v1,-209,-149,-389,-375,-368r0,739v223,18,374,-167,375,-371xm807,-209v3,287,-202,488,-487,484r-220,0r0,-966r220,0v281,1,484,182,487,482","w":1200},"+":{"d":"201,-860r502,0r0,-502r157,0r0,502r501,0r0,157r-501,0r0,501r-157,0r0,-501r-502,0r0,-157","w":1562},",":{"d":"198,-219r220,0r0,219r-182,361r-136,0r181,-361r-83,0r0,-219","w":524},"-":{"d":"269,-861r1024,0r0,157r-1024,0r0,-157","w":1562},".":{"d":"200,-219r220,0r0,219r-220,0r0,-219","w":524},"\/":{"d":"107,103r421,-1771r164,0r-415,1771r-170,0","w":800},"0":{"d":"132,-509v-49,-470,2,-978,455,-978v163,0,284,68,364,204v116,194,119,538,86,825v-21,178,-111,351,-232,414v-126,65,-349,56,-464,-32v-127,-97,-188,-235,-209,-433xm852,-451v17,-66,19,-272,19,-311v0,-140,-11,-264,-48,-368v-47,-135,-125,-203,-237,-203v-131,0,-191,84,-229,183v-69,177,-65,472,-36,691v3,24,14,53,24,88v43,144,123,216,243,216v177,1,227,-153,264,-296","w":1175},"1":{"d":"273,-1272v104,-32,182,-104,232,-214r165,0r0,1348r232,0r0,138r-629,0r0,-138r232,0r0,-1109v-58,64,-137,115,-232,142r0,-167","w":1175},"2":{"d":"604,-1480v274,0,449,170,449,430v0,303,-223,435,-398,581v-109,91,-229,166,-294,303r694,1r0,165r-936,0v12,-196,137,-331,247,-443v156,-158,361,-262,484,-451v71,-109,38,-307,-46,-368v-55,-40,-111,-71,-199,-71v-209,0,-321,137,-319,348r-167,0v-2,-301,177,-495,485,-495","w":1175},"3":{"d":"899,-427v-2,-182,-200,-313,-406,-253r-47,-186v42,18,158,18,209,2v104,-33,203,-100,203,-227v0,-128,-129,-234,-264,-234v-142,0,-266,79,-263,213r-177,0v-3,-212,209,-372,440,-372v231,0,422,182,422,394v0,128,-54,231,-163,310v106,66,198,192,202,352v6,232,-223,428,-468,428v-186,0,-358,-115,-427,-246v-27,-51,-40,-107,-40,-169r187,0v1,79,32,135,76,177v55,53,122,81,204,81v160,0,314,-118,312,-270","w":1175},"4":{"d":"915,-518r139,0r0,160r-139,0r0,358r-157,0r0,-358r-638,0r0,-160r638,-968r156,0xm758,-518r0,-696r-458,696r458,0","w":1175},"5":{"d":"596,-836v-96,0,-184,39,-222,103r-165,0r0,-749r780,0r0,166r-615,0r0,386v93,-55,276,-93,396,-28v110,60,181,111,235,236v33,74,49,151,49,230v0,344,-364,621,-681,433v-116,-69,-201,-200,-242,-353v-7,-25,-10,-49,-10,-72r163,0v24,122,82,222,165,285v39,29,86,41,138,41v175,-3,303,-147,301,-341v-2,-192,-104,-337,-292,-337","w":1175},"6":{"d":"897,-475v0,-164,-129,-317,-292,-317v-161,0,-292,152,-292,317v0,166,133,318,292,318v157,0,292,-152,292,-318xm1055,-473v-6,286,-183,473,-452,473v-201,0,-319,-127,-395,-263v-102,-183,-109,-503,-62,-747v35,-181,131,-309,257,-404v135,-102,336,-90,461,14v69,57,125,140,168,251r-184,0v-54,-106,-96,-171,-239,-177v-162,-7,-305,204,-335,386v-12,73,-22,156,-22,248v58,-137,198,-264,379,-265v241,-2,429,234,424,484","w":1175},"7":{"d":"120,-1482r934,0r1,163v-304,294,-406,810,-500,1319r-162,0v76,-493,204,-988,444,-1316r-717,0r0,-166","w":1175},"8":{"d":"310,-1092v0,139,136,240,278,240v137,0,278,-100,278,-240v0,-134,-133,-249,-278,-249v-144,0,-278,111,-278,249xm588,-1486v228,0,443,174,443,394v0,131,-59,236,-177,315v107,66,198,191,201,351v4,236,-224,426,-467,426v-243,0,-470,-188,-468,-426v2,-162,93,-283,202,-351v-119,-79,-178,-184,-178,-315v0,-216,212,-394,444,-394xm881,-426v0,-143,-141,-270,-293,-270v-154,0,-293,121,-293,270v0,149,140,269,293,269v153,0,293,-120,293,-269","w":1175},"9":{"d":"280,-1004v0,165,134,312,293,312v119,0,234,-94,273,-192v47,-117,13,-267,-52,-338v-53,-58,-116,-102,-215,-105v-162,-4,-299,152,-299,323xm119,-1007v0,-266,185,-484,454,-477v335,9,488,305,482,672v-3,229,-35,440,-142,583v-92,123,-195,229,-374,229v-228,0,-354,-150,-420,-344r183,0v44,103,99,186,244,185v102,0,190,-59,264,-179v74,-120,111,-267,111,-440v-63,131,-198,248,-377,250v-239,3,-425,-229,-425,-479","w":1175},":":{"d":"179,-161r310,0r0,-1242r-311,0r0,-161r475,0r0,1564r-474,0r0,-161xm1642,-161r0,161r-474,0r0,-1564r475,0r0,161r-311,0r0,1242r310,0xm760,-782v0,-76,70,-147,147,-147v80,0,147,70,147,147v0,78,-68,147,-147,147v-82,0,-147,-71,-147,-147"},";":{"d":"0,-1378v0,-154,135,-290,290,-290v156,0,290,134,290,290v0,157,-134,290,-290,290v-155,0,-290,-132,-290,-290xm444,-1378v0,-80,-70,-153,-154,-153v-82,0,-153,71,-153,153v0,80,72,154,153,154v81,0,154,-72,154,-154","w":800},"<":{"d":"130,-782v0,-362,217,-614,486,-724v190,-77,398,-78,588,0v269,110,488,359,488,724v0,363,-216,614,-486,724v-192,78,-397,79,-590,1v-271,-110,-486,-360,-486,-725xm424,-418r364,-364r-364,-364v-160,208,-160,520,0,728xm547,-1269r364,364r364,-364v-207,-160,-521,-160,-728,0xm1398,-1146r-364,364r364,364v160,-206,160,-518,0,-728xm1275,-295r-364,-364r-364,364v206,161,523,161,728,0"},"=":{"d":"313,-605r935,0r0,165r-935,0r0,-165xm313,-1095r935,0r0,165r-935,0r0,-165","w":1562},">":{"d":"1231,220v-153,60,-274,9,-356,-103r-179,299r-167,0r262,-438v-87,-194,-136,-430,-201,-646v-61,4,-116,-3,-159,-20r0,502v0,76,63,108,157,99r0,87r-458,0r0,-87v66,4,128,-48,127,-99r0,-1098v1,-57,-61,-100,-127,-98r0,-91r457,0v212,8,368,175,369,382v0,174,-109,324,-235,391r123,450v9,29,20,58,31,86r160,-267r167,0r-252,422v84,137,183,144,274,19r7,0r0,210xm431,-804v123,8,187,-20,257,-88v124,-117,126,-338,-28,-425v-61,-35,-136,-55,-229,-55r0,568","w":1361},"?":{"d":"560,0r0,-168r181,0r0,168r-181,0xm651,-1392v-159,0,-314,131,-307,281r-165,0v3,-139,65,-237,148,-315v91,-86,199,-129,324,-129v293,0,520,305,425,623v-23,77,-127,184,-189,226v-63,43,-104,70,-141,126v-29,44,-20,134,-22,208r-164,0v0,-92,-4,-188,22,-253v16,-40,58,-89,131,-143v70,-52,120,-95,150,-129v160,-181,19,-495,-212,-495","w":1277},"@":{"d":"191,-263v-86,-204,-87,-493,-54,-754v24,-187,89,-322,226,-405v71,-43,145,-65,223,-65v165,1,212,34,300,117r75,-120r135,87r-115,182v89,196,87,486,58,745v-21,191,-90,345,-239,422v-68,35,-138,54,-212,54v-157,-1,-221,-32,-302,-114r-73,116r-134,-85xm852,-450v16,-66,20,-272,20,-311v0,-96,-7,-181,-20,-255r-466,743v51,79,71,119,203,118v169,-1,229,-153,263,-295xm787,-1212v-45,-71,-88,-120,-200,-120v-107,0,-184,61,-230,184v-61,160,-60,415,-44,626v1,3,4,19,10,50","w":1175},"A":{"d":"1258,-1389v-140,1,-259,105,-259,254r0,820v89,-13,163,-45,227,-88r13,9r-328,623r-328,-624r13,-8v61,42,140,74,229,88r0,-818v5,-132,-122,-259,-261,-256v-135,3,-258,105,-258,257v0,79,30,144,91,196r-102,143v-110,-86,-165,-199,-165,-339v0,-232,204,-439,434,-432v163,5,269,69,347,173v79,-107,180,-169,347,-173v233,-6,434,200,434,432v0,139,-55,252,-165,339r-102,-143v61,-51,91,-117,91,-196v0,-136,-119,-259,-258,-257"},"B":{"d":"1216,-111r-226,0r0,214r-160,0r0,-214r-226,0r0,-143r226,0r0,-521r-299,298r-101,-101r307,-307r-434,0r0,-144r434,0r-307,-307r101,-101r307,307r0,-434r144,0r0,434r307,-307r101,101r-307,307r435,0r0,144r-435,0r307,307r-101,101r-299,-298r0,521r226,0r0,143"},"C":{"d":"907,-1564v295,-4,553,259,553,553v0,230,-160,442,-348,514v-66,26,-138,39,-215,39r0,173r217,0r0,144r-217,0r0,244r-168,0r0,-244r-215,0r0,-144r215,0r0,-334v115,-1,221,6,305,-31v129,-56,255,-203,255,-369v0,-218,-205,-400,-427,-400v-195,0,-363,130,-409,282r-92,36v33,-247,260,-459,546,-463"},"D":{"d":"1003,-1398v-264,0,-492,228,-492,491v0,247,188,449,404,484r0,-412r-255,0r0,-142r255,0r0,-235r168,0r0,235r254,0r0,142r-254,0r0,413v81,-13,156,-46,224,-99r169,70v-107,111,-238,177,-393,197r0,357r-168,0r0,-358v-304,-31,-570,-317,-570,-652v0,-351,306,-657,658,-657v185,0,343,67,473,202r-169,70v-91,-71,-192,-106,-304,-106"},"E":{"d":"1348,-920v0,210,-161,393,-353,427r0,230r262,0r0,145r-262,0r0,221r-167,0r0,-221r-263,0r0,-145r263,0r0,-230v-149,-24,-279,-140,-327,-271v-68,-183,-14,-368,121,-482v-83,-68,-145,-184,-148,-317r165,0v3,103,52,188,119,235v94,-36,213,-36,307,0v61,-47,117,-124,118,-235r165,0v-1,135,-69,248,-147,317v98,87,147,196,147,326xm1183,-919v0,-150,-127,-273,-272,-273v-146,0,-274,128,-274,273v0,146,126,273,274,273v147,0,272,-124,272,-273"},"F":{"d":"995,-1124r0,640r304,-237r107,138r-354,275r354,275r-107,136r-388,-301r-389,301r-107,-136r354,-275r-354,-275r107,-138r305,237r0,-640v-106,14,-193,58,-260,110r344,-654r343,654v-70,-54,-153,-93,-259,-110"},"G":{"d":"1247,-717r-254,0r0,717r-168,0r0,-717r-254,0r0,-141r254,0r0,-310r168,0r0,310r254,0r0,141xm726,-1390v-286,-3,-425,215,-418,521r-178,0v1,-307,102,-515,296,-631v73,-43,158,-64,257,-64r452,0v308,2,461,184,527,426v21,77,29,168,29,269r-175,0v4,-313,-121,-521,-423,-521r-367,0"},"H":{"d":"685,-1439v82,295,-58,592,-181,781r471,0r0,-366v-66,-35,-127,-84,-183,-147r175,0v72,49,150,91,263,91v113,-1,189,-40,263,-91r174,0v-55,61,-116,109,-183,146r0,367r207,0r0,145r-207,0r0,366v66,36,127,85,183,147r-174,0v-70,-48,-151,-100,-263,-96v-116,4,-180,37,-263,96r-175,0v55,-62,116,-111,183,-148r0,-365r-845,0v188,-97,298,-319,362,-534v16,-55,23,-106,23,-153v0,-260,-146,-435,-385,-361v107,-83,329,-164,453,-39v45,46,84,97,102,161xm1366,-195r0,-318r-273,0r0,318v88,-24,183,-24,273,0xm1366,-977v-87,24,-191,25,-273,-1r0,320r273,0r0,-319"},"I":{"d":"513,-1615v41,107,81,230,84,369r232,0r0,-192r164,0r0,192r232,0v3,-143,36,-250,84,-369r192,0v-63,126,-105,259,-104,444v1,175,40,318,104,443r-193,0v-46,-109,-78,-224,-83,-369r-232,0r0,410v171,33,317,199,317,391v0,216,-188,399,-399,399v-211,0,-399,-180,-399,-399v0,-193,143,-356,317,-391r0,-410r-232,0v-6,143,-41,260,-83,369r-193,0v58,-119,104,-272,104,-443v0,-193,-38,-307,-104,-444r192,0xm1146,-296v0,-124,-109,-235,-235,-235v-127,0,-235,109,-235,235v0,130,109,236,235,236v123,0,235,-108,235,-236"},"J":{"d":"952,-1219r0,244r222,0v-14,-122,-106,-225,-222,-244xm1174,-893r-222,0r0,245v116,-19,206,-123,222,-245xm870,-648r0,-245r-222,0v13,123,105,227,222,245xm648,-975r222,0r0,-244v-114,18,-205,120,-222,244xm1338,-933v2,209,-161,388,-345,419r0,617r-164,0r0,-617v-186,-31,-345,-207,-345,-419v0,-138,61,-247,144,-320v-96,-84,-144,-188,-144,-311r161,0v0,97,39,174,116,231v91,-36,207,-36,300,0v69,-51,115,-121,116,-231r161,0v-2,141,-61,237,-144,311v78,74,143,180,144,320"},"K":{"d":"995,-1124r0,407r474,820r-1117,0r475,-820r0,-407v-100,15,-192,52,-260,110r344,-654r344,654v-69,-54,-152,-94,-260,-110xm916,-525r-276,471r550,0"},"L":{"d":"221,-487v161,-100,367,-194,608,-205r0,-227v-123,-1,-217,-26,-321,-59v-102,-32,-198,-75,-287,-132r0,-209v133,104,288,174,469,215v47,10,93,15,139,15r0,-254r164,0r0,254v115,-1,190,-25,288,-58v116,-39,223,-97,320,-173r0,210v-175,100,-358,180,-608,191r0,224v248,6,440,85,608,179r0,205v-168,-115,-351,-202,-608,-214r0,305r-164,0r0,-302v-250,26,-453,120,-608,248r0,-213"},"M":{"d":"378,-249v0,-174,138,-361,299,-350r152,0r0,-1069r164,0r0,335r335,-335r115,116r-300,300r301,301r-116,116r-335,-335r0,571r151,0v158,-6,299,178,299,350v0,184,-121,352,-299,352r-467,0v-173,8,-299,-168,-299,-352xm1279,-284v2,-80,-80,-151,-167,-151r-403,0v-85,-3,-169,69,-167,151r0,73v-2,82,82,151,167,151r403,0v87,3,168,-68,167,-151r0,-73"},"N":{"d":"416,-1030r224,0r271,301r261,-301r233,0r-494,547xm130,-517r446,0r335,375r328,-375r452,0r0,174r-375,0r-406,446r-404,-446r-376,0r0,-174xm911,-1564r135,226r-135,151r0,232r-136,-232r136,-141r0,-236"},"O":{"d":"701,-604v-258,4,-462,-273,-452,-548r0,-134v-52,17,-96,48,-123,86r208,-395r209,395v-31,-37,-72,-68,-125,-86r0,141v-6,183,119,373,282,371r133,0r0,-514v-56,16,-102,47,-132,88r209,-395r208,395v-28,-35,-71,-69,-122,-85r0,511r125,0v164,0,288,-190,281,-371r0,-141v-53,18,-96,47,-125,86r209,-395r209,395v-30,-36,-71,-68,-123,-85r0,133v9,277,-196,553,-453,548r-123,0r0,227r244,0r0,139r-244,0r0,238r-163,0r0,-238r-253,0r0,-139r253,0r0,-227r-132,0"},"P":{"d":"573,-308r256,0r0,-256v-272,-21,-520,-221,-628,-438v-47,-93,-70,-187,-70,-283r166,-107v-14,223,65,369,184,488v108,107,237,181,432,181v284,0,474,-164,567,-367v41,-90,56,-187,48,-302r162,104v-1,109,-26,201,-66,281v-109,216,-355,421,-631,443r0,256r257,0r0,142r-257,0r0,269r-164,0r0,-269r-256,0r0,-142xm580,-1337v0,-179,155,-331,332,-331v176,0,330,154,330,331v0,179,-156,331,-330,331v-178,0,-332,-154,-332,-331xm1099,-1337v0,-99,-88,-188,-187,-188v-103,0,-188,90,-188,188v0,101,87,188,188,188v100,0,187,-87,187,-188"},"Q":{"d":"590,-1494v183,-87,415,-92,607,-14v194,78,338,220,425,406v92,197,91,445,0,641v-87,185,-233,327,-426,406v-184,75,-411,75,-589,-6v-270,-123,-477,-342,-477,-721v0,-233,82,-393,203,-525v71,-78,157,-141,257,-187xm911,-173v327,0,615,-282,609,-609v-4,-205,-102,-372,-222,-470v-113,-93,-242,-139,-387,-139v-327,0,-609,282,-609,609v0,327,283,609,609,609xm738,-782v0,-93,78,-173,173,-173v92,0,173,81,173,173v0,92,-83,173,-173,173v-95,0,-173,-80,-173,-173"},"R":{"d":"1243,-1068v0,-179,-154,-333,-332,-333v-178,0,-333,154,-333,333v0,178,156,333,333,333v176,0,332,-157,332,-333xm1407,-1068v0,249,-194,457,-414,489r0,192r256,0r0,142r-256,0r0,245r-164,0r0,-245r-257,0r0,-142r257,0r0,-191v-219,-31,-415,-244,-415,-490v0,-265,232,-496,497,-496v266,0,496,230,496,496"},"S":{"d":"1560,-1103v0,167,-128,315,-279,344r0,148r413,0r0,128r-413,0r0,172r224,0r0,120r-224,0r0,191r-143,0r0,-191r-223,0r0,-120r223,0r0,-172r-1010,0r136,-132v135,-127,261,-376,259,-605v-1,-202,-90,-357,-289,-357v-32,0,-66,7,-101,21v57,-54,180,-112,285,-112v198,0,299,187,295,410v-4,271,-109,485,-229,647r654,0r0,-148v-149,-29,-279,-173,-279,-344v0,-187,161,-351,350,-351v190,0,351,165,351,351xm1421,-1103v0,-113,-97,-211,-212,-211v-114,0,-211,98,-211,211v0,114,100,212,211,212v113,0,212,-99,212,-212"},"T":{"d":"130,-499v0,-266,232,-498,498,-498v102,0,199,31,291,92r338,-338v-72,-56,-155,-93,-263,-107r697,-216r-211,702v-11,-103,-52,-192,-107,-263r-338,338v61,95,92,191,92,290v0,267,-233,499,-499,499v-266,0,-498,-226,-498,-499xm628,-164v178,0,335,-157,335,-335v0,-175,-159,-334,-335,-334v-177,0,-334,158,-334,334v0,181,154,335,334,335"},"U":{"d":"1231,111v0,97,41,168,126,168v59,0,114,-36,167,-109v53,-73,87,-130,102,-173r0,230v-54,94,-145,189,-289,189v-160,0,-282,-137,-262,-330v20,-187,116,-355,64,-560v-25,-96,-70,-173,-142,-225v-37,-27,-83,-41,-138,-41v-132,0,-217,45,-256,134r0,606r-154,0r0,-1150r-254,0r0,-143r254,0r0,-271r154,0r0,271r254,0r0,143r-254,0r0,336v107,-98,333,-102,461,-26v152,90,240,267,246,482v5,166,-79,302,-79,469"},"V":{"d":"1249,-135r-254,0r0,238r-168,0r0,-238r-254,0r0,-141r254,0r0,-239r-451,-484r526,-564r543,565r-450,480r0,242r254,0r0,141xm910,-672r296,-325r-300,-320r-290,320"},"W":{"d":"329,-1382v121,-106,250,-182,455,-182v211,0,360,87,477,204v127,128,233,338,233,578v0,362,-185,600,-436,721v-188,90,-401,81,-581,-20v-39,-21,-89,-55,-149,-100v52,5,101,4,149,-6v237,-47,416,-309,416,-595v0,-258,-146,-495,-345,-573v-69,-27,-137,-38,-219,-27xm618,-137v115,32,259,12,352,-36v189,-97,350,-334,350,-609v0,-283,-179,-516,-389,-607v-87,-37,-206,-63,-317,-35v245,73,431,344,435,642v3,209,-113,436,-237,543v-59,51,-123,85,-194,102"},"X":{"d":"1692,-134v-43,61,-161,134,-256,134v-239,0,-347,-234,-396,-460v-68,-313,34,-649,216,-798v138,-112,350,-60,436,60r0,283r-52,5v-11,-93,-29,-164,-57,-211v-72,-120,-161,-153,-255,-49v-188,210,-185,797,-4,1006v38,44,75,65,112,65v108,-2,208,-169,201,-324r55,14r0,275xm712,-85v42,1,81,-32,81,-73r0,-879r-246,1037r-34,0r-239,-969r0,818v0,38,20,66,60,65r0,86r-204,0r0,-86v39,-2,58,-28,58,-64r0,-1038v0,-32,-26,-60,-58,-59r0,-77r191,0r235,916r217,-916r216,0r0,79v-52,1,-85,14,-86,63r0,1022v-1,43,33,75,77,74r0,86r-268,0r0,-85"},"Y":{"d":"854,-1171v0,250,-100,436,-205,597r370,0r0,-255r168,-169r0,424r361,0r0,142r-361,0r0,432r-168,0r0,-432r-746,0r69,-63v110,-99,175,-172,237,-298v58,-117,85,-231,85,-342v1,-210,-118,-362,-339,-338v-15,2,-32,8,-52,16v81,-64,247,-145,384,-88v132,55,197,188,197,374"},"Z":{"d":"361,-146v-10,51,23,67,78,66r0,80r-264,0r0,-80v46,-2,76,-20,86,-61r284,-1183r111,0r249,1184v6,37,32,58,70,59r0,81r-270,0r0,-81v32,-1,62,-17,54,-55r-77,-347r-243,1xm565,-1013r-105,437r202,0xm1646,-134v-42,62,-162,134,-256,134v-176,0,-284,-148,-346,-292v-102,-239,-92,-572,25,-791v65,-121,163,-241,321,-241v106,0,203,54,256,126r0,283r-52,5v-13,-86,-20,-149,-57,-211v-72,-121,-162,-154,-255,-49v-188,211,-185,796,-4,1006v38,44,75,65,112,65v107,-2,208,-167,200,-324r56,14r0,275"},"[":{"d":"911,-1452r671,512r-257,828r-830,0r-256,-828xm911,-1237r-462,355r184,595r555,0r184,-595"},"\\":{"d":"696,103r-171,0r-421,-1771r163,0","w":800},"]":{"d":"392,-97r1038,0r0,160r-1038,0r0,-160xm911,-1646r671,512r-256,828r-830,0r-257,-828xm911,-1430r-462,357r185,601r554,0r184,-601"},"^":{"d":"635,-428v0,-90,-70,-150,-162,-150r-199,0r0,298r199,0v86,1,162,-59,162,-148xm811,-429v0,146,-136,264,-289,264r-248,0r0,440r-174,0r0,-967r422,-1v149,-5,289,119,289,264","w":1200},"_":{"d":"1562,329r-1561,0r0,-148r1561,0r0,148","w":1563},"`":{"d":"500,-1073v0,-340,251,-597,583,-595v91,0,171,15,239,46v-186,96,-341,294,-341,549v0,259,156,453,341,548v-109,46,-199,66,-329,44r0,219r257,0r0,143r-257,0r0,222r-164,0r0,-222r-257,0r0,-143r257,0r0,-270v-145,-71,-253,-207,-305,-362v-17,-51,-24,-111,-24,-179"},"a":{"d":"917,-1391v78,-104,175,-168,341,-172v232,-6,434,200,434,431v0,139,-55,252,-165,339r-102,-143v61,-51,91,-117,91,-196v0,-132,-120,-259,-258,-257v-141,2,-258,106,-258,255r0,1134r-176,0r0,-1133v6,-137,-123,-256,-260,-256v-135,0,-258,121,-258,257v0,79,30,144,91,196r-102,143v-110,-86,-165,-199,-165,-339v0,-232,203,-438,434,-431v167,5,273,68,353,172"},"b":{"d":"483,-1227v-62,0,-84,41,-84,102r0,269v2,62,41,117,113,116v69,-2,109,-72,99,-156r84,0r0,410r-84,0v11,-84,-33,-155,-101,-156v-71,-1,-110,41,-111,106r0,340v0,68,25,98,92,98v59,0,110,7,145,-26v43,-41,51,-123,70,-191r77,26r-61,289r-574,0r0,-98v46,1,97,-47,97,-97r0,-929v0,-51,-43,-107,-97,-103r0,-96r575,-1r60,289r-77,25v-21,-91,-29,-209,-132,-217r-91,0xm1295,-142v4,54,38,57,106,60r0,82r-366,0r0,-82v59,0,104,-14,104,-61r0,-1038v1,-41,-56,-63,-104,-61r0,-82r318,0v131,4,188,61,256,151v121,158,92,404,-26,537v-65,74,-158,128,-288,129r0,365xm1295,-1227r0,594v75,-3,122,-43,164,-92v95,-110,97,-285,14,-403v-46,-66,-105,-99,-178,-99"},"c":{"d":"387,-1564v146,179,256,411,280,695r488,0v3,-142,38,-252,88,-374v48,-118,112,-225,193,-321r256,0v-183,161,-320,400,-350,695r252,0r0,174r-253,0v3,141,46,246,102,362v60,124,143,235,249,333r-261,0v-120,-149,-203,-317,-253,-515v-16,-64,-23,-124,-23,-180r-487,0v-3,155,-39,264,-96,395v-47,108,-107,208,-181,300r-261,0v179,-164,322,-399,351,-695r-252,0r0,-174r252,0v-31,-298,-167,-529,-351,-695r257,0"},"d":{"d":"1168,-1320v-169,33,-351,33,-516,0r0,1076v169,-33,351,-33,516,0r0,-1076xm483,-197r0,-1170v-133,-45,-249,-111,-349,-197r309,0v291,148,642,148,934,0r310,0v-101,86,-218,152,-350,198r0,1169v131,45,248,111,350,197r-310,0v-291,-148,-642,-148,-934,0r-309,0v99,-84,215,-150,349,-197"},"e":{"d":"910,-1103r-483,825r965,0xm911,-1456r780,1348r-1560,0"},"f":{"d":"130,-524v-4,-202,177,-381,380,-381v203,0,383,177,379,381v-3,153,-85,271,-191,330v204,58,460,17,608,-60v164,-86,294,-204,385,-365r0,285v-188,192,-437,336,-809,336v-220,0,-397,-70,-540,-167v-112,-76,-209,-186,-212,-359xm721,-524v-2,-112,-86,-209,-211,-212v-114,-3,-212,102,-212,212v0,114,96,212,212,212v111,0,213,-98,211,-212xm1691,-1040v0,202,-178,381,-380,381v-201,0,-385,-172,-380,-381v4,-166,80,-260,191,-330v-220,-62,-478,-14,-634,73v-154,85,-274,201,-358,352r0,-285v192,-194,436,-338,808,-338v295,0,534,119,676,296v52,65,77,143,77,232xm1099,-1040v0,114,98,212,212,212v113,0,213,-98,211,-212v-2,-113,-86,-210,-211,-212v-116,-2,-212,100,-212,212"},"g":{"d":"579,-473v0,-74,-69,-143,-146,-143v-76,0,-145,67,-145,143v0,79,67,142,145,142v74,0,146,-64,146,-142xm415,-770v-61,-143,-123,-313,-57,-480v61,-155,180,-295,342,-361v174,-71,452,-71,619,0v209,89,372,246,372,513v0,147,-50,311,-163,484r-191,292v-77,124,-127,201,-132,353v-4,123,73,223,201,206v116,-16,227,-147,285,-239r0,255v-86,109,-189,163,-309,163v-129,-1,-218,-73,-279,-152v-133,-170,-87,-384,17,-556r127,-210v69,-122,170,-286,218,-408v50,-128,49,-240,-12,-346v-71,-122,-253,-240,-445,-238v-299,4,-514,217,-466,523v15,93,58,203,136,323v35,54,58,110,58,175v0,160,-141,296,-303,296v-160,0,-303,-135,-303,-296v0,-119,83,-229,173,-271v35,-17,73,-26,112,-26"},"h":{"d":"1238,288v-123,76,-335,175,-525,100r0,-174v155,88,329,13,433,-57v-23,-54,-35,-106,-35,-157r0,-1021v-1,-117,-15,-172,-77,-203v-95,-47,-203,21,-241,84v4,30,6,69,6,117r0,1023r-173,0r0,-1064v2,-102,-52,-171,-144,-174v-75,-2,-130,46,-164,96r0,1142r-173,0r0,-1471r85,-93r88,0r0,302v43,-76,113,-138,220,-141v94,-3,192,71,225,149v50,-85,133,-149,263,-149v113,0,213,94,240,198v11,42,18,100,18,173v249,29,425,244,423,527v-2,227,-120,442,-242,580r-97,106v53,51,112,77,177,77v63,0,123,-36,161,-61r0,180v-41,26,-95,39,-161,39v-133,-1,-235,-58,-307,-128xm1284,-857r1,857v-1,12,0,26,4,43v123,-127,247,-285,253,-531v5,-188,-103,-330,-258,-369"},"i":{"d":"237,-523r522,0r-505,-577r130,-114r527,600r525,-600r131,114r-506,577r523,0r0,174r-1347,0r0,-174"},"j":{"d":"911,-1118v-169,4,-292,127,-295,308r0,156r-486,0r0,-164r320,0v2,-149,53,-245,133,-329v166,-176,461,-184,639,-16v88,83,148,189,150,345r319,0r0,164r-485,0v-2,-99,8,-203,-22,-276v-42,-102,-140,-191,-273,-188xm130,-442r1561,0r0,164r-1561,0r0,-164"},"k":{"d":"1051,100v2,116,50,183,156,183v115,0,215,-118,261,-222v-80,-29,-193,-31,-272,8r511,-347r-1,621v-18,-113,-64,-162,-128,-220v-36,101,-141,214,-240,262v-75,37,-178,39,-254,5v-97,-44,-174,-139,-169,-281v8,-218,133,-345,210,-503v97,-198,161,-491,42,-697v-44,-77,-110,-171,-238,-143v-59,13,-101,47,-135,93v4,30,6,69,6,117r0,1024r-174,0r0,-1021v0,-139,-30,-218,-144,-218v-76,0,-127,49,-164,96r0,1143r-173,0r0,-1472r85,-92r88,0r0,302v43,-78,111,-138,221,-141v94,-2,192,72,225,149v47,-81,133,-153,261,-149v139,4,233,130,291,233v82,145,104,423,40,610v-63,183,-161,320,-249,475v-37,64,-56,126,-56,185"},"l":{"d":"1369,-1118r-523,522r225,101r-71,159r-285,-128r-462,461r-123,-123r415,-415r-221,-99r71,-159r282,127r569,-569v-72,-51,-154,-92,-260,-104r706,-220r-219,706v-13,-103,-49,-185,-104,-259"},"m":{"d":"1454,-870v119,-13,137,-158,73,-259v97,13,162,84,165,176v2,84,-62,173,-152,169v126,-2,200,172,113,276v-28,34,-68,60,-127,73v26,-44,39,-86,39,-127v1,-77,-47,-134,-111,-134r-455,0r0,458v11,120,158,139,258,73v-13,99,-82,162,-176,165v-85,2,-172,-61,-168,-152v-1,137,-174,195,-277,113v-35,-27,-60,-68,-73,-127v98,72,262,49,262,-71r0,-459r-461,0v-64,7,-112,62,-110,135v0,39,13,81,40,126v-100,-16,-165,-87,-165,-183v0,-86,58,-164,151,-167v-138,0,-193,-176,-112,-277v27,-33,67,-56,125,-67v-65,99,-47,259,73,259r459,0r0,-458v-6,-67,-65,-109,-136,-110v-37,0,-79,13,-126,40v16,-98,88,-166,183,-166v83,0,167,57,167,152v-2,-129,176,-199,277,-112v33,28,56,68,67,125v-98,-63,-258,-48,-258,73r0,456r455,0"},"n":{"d":"445,-1222v-58,1,-84,37,-83,102r0,267v-2,65,48,117,112,116v69,-1,109,-72,99,-156r84,0r0,409r-84,0v10,-84,-33,-154,-101,-156v-67,-2,-111,41,-110,105r0,340v1,69,24,97,91,97v59,0,113,7,146,-26v44,-43,48,-122,69,-190r77,26r-61,288r-574,0r0,-98v45,1,97,-47,97,-96r0,-926v0,-53,-43,-104,-97,-102r0,-97r575,0r61,288r-78,25v-21,-91,-28,-209,-132,-216r-91,0xm1331,-120v220,-93,277,-617,158,-888v-58,-132,-124,-200,-210,-200v-115,0,-175,115,-218,221v-112,278,-43,794,168,868r0,-201r102,0r0,200xm1712,-659v0,297,-152,615,-378,655v10,111,71,214,190,174v87,-29,124,-79,188,-171r0,221v-55,49,-120,95,-219,95v-167,0,-256,-142,-262,-318v-206,-42,-321,-244,-367,-455v-68,-311,34,-660,226,-795v194,-136,387,-56,509,151v75,127,113,274,113,443"},"o":{"d":"237,-1040r0,-174r1347,0r0,174r-523,0r506,576r-131,115r-525,-600r-527,600r-130,-115r505,-576r-522,0"},"p":{"d":"353,-592v0,-199,171,-369,369,-369v68,0,132,18,191,54r433,-433r123,123r-433,433v36,59,54,123,54,192v0,198,-172,368,-369,368v-199,0,-368,-169,-368,-368"},"q":{"d":"939,-633v2,-105,-91,-194,-209,-175v-118,19,-225,119,-226,255v0,100,80,185,188,178v134,-8,244,-118,247,-258xm353,-592v0,-199,171,-369,369,-369v68,0,132,18,192,54r432,-433r123,123r-433,433v36,59,54,123,54,192v0,197,-171,368,-368,368v-199,0,-369,-167,-369,-368"},"r":{"d":"364,-1370r1130,0r0,1130r-1130,0r0,-1130xm516,-1222r0,829r829,0r0,-829r-829,0"},"s":{"d":"1400,-571v0,-260,-228,-490,-490,-490v-206,0,-394,143,-458,313v-128,338,140,667,458,667v265,0,490,-227,490,-490xm1565,-1564v-41,179,-163,332,-307,416v183,117,327,290,327,577v0,316,-183,519,-413,621v-161,71,-363,69,-524,0v-161,-69,-298,-205,-363,-362v-33,-80,-49,-166,-49,-259v0,-268,146,-470,326,-577v-147,-89,-260,-234,-307,-416r204,0v56,170,239,319,451,317v217,-2,392,-143,451,-317r204,0"},"t":{"d":"1393,-403r-395,-228r0,456r-174,0r0,-456r-395,228r-87,-151r395,-228r-395,-228r87,-150r395,228r0,-456r174,0r0,456r395,-228r87,150r-395,228r395,228"},"u":{"d":"344,-1550r1125,0r0,1130r-476,0r0,253r476,0r0,172r-649,0r0,-425r-476,0r0,-1130xm993,-897r0,309r310,0r0,-807r-795,0r0,807r313,0r0,-309r172,0"},"v":{"d":"786,-650v-238,120,-451,446,-494,753r-162,0v38,-294,156,-508,318,-688v136,-152,295,-257,512,-318r379,-489r-881,0r0,-172r1234,0r-484,625v263,-12,483,214,483,470v0,252,-219,469,-470,469v-311,0,-572,-325,-435,-650xm1221,-763v-152,0,-301,129,-301,294v0,157,142,293,301,293v157,0,300,-136,300,-293v0,-156,-144,-294,-300,-294"},"w":{"d":"1542,-1235v2,-97,-80,-180,-181,-177v-138,4,-253,122,-254,252v0,113,82,195,204,181v120,-14,229,-118,231,-256xm714,-387v2,-129,-64,-195,-187,-199v-118,-4,-246,130,-246,252v0,115,81,193,203,182v90,-8,174,-80,210,-152v13,-26,20,-54,20,-83xm1325,-827v-79,-2,-139,-21,-193,-53r-319,320v35,59,53,123,53,192v0,198,-170,368,-368,368v-199,0,-368,-169,-368,-368v0,-200,169,-369,369,-369v67,0,131,18,191,54r319,-320v-35,-59,-53,-123,-53,-192v0,-199,171,-369,369,-369v195,0,367,171,367,369v0,199,-169,372,-367,368"},"x":{"d":"130,-722v95,2,146,85,186,154v31,53,54,111,76,168v38,99,63,113,103,16v13,-31,22,-56,30,-72v49,-94,105,-266,231,-266v96,0,140,90,179,164v30,55,52,110,72,162v39,101,74,106,113,4v36,-97,84,-206,144,-278v57,-69,159,-66,216,4v58,72,101,180,143,273v21,48,43,72,68,72r0,177v-133,-11,-175,-156,-229,-255v-23,-41,-55,-149,-87,-149v-15,0,-33,22,-53,67v-45,96,-88,197,-148,276v-58,77,-146,79,-208,6v-64,-74,-114,-181,-158,-278v-44,-95,-61,-95,-104,3v-40,91,-93,205,-156,277v-60,69,-153,69,-209,-3v-60,-77,-100,-182,-144,-276v-22,-47,-42,-71,-65,-71r0,-175xm130,-1418v95,2,146,85,186,154v32,54,56,111,76,166v38,100,62,115,103,17r30,-71v27,-60,78,-155,118,-205v58,-73,152,-82,214,-14v61,67,114,186,150,277v40,101,74,105,113,2v35,-94,85,-202,144,-274v57,-68,160,-68,215,2v59,74,102,181,144,275v21,47,43,71,68,71r0,177v-133,-11,-174,-156,-229,-255v-23,-41,-54,-148,-87,-148v-15,0,-33,22,-53,66v-44,96,-88,197,-148,276v-59,77,-146,79,-208,6v-64,-74,-113,-181,-158,-278v-44,-94,-62,-93,-104,4v-40,90,-93,204,-156,276v-60,69,-153,68,-209,-4v-60,-77,-100,-181,-144,-275v-22,-47,-42,-71,-65,-71r0,-174"},"y":{"d":"587,-403r892,0r0,174r-1137,0r0,-173r932,-933r123,123"},"z":{"d":"1094,-1564v98,61,156,164,193,302v46,-44,98,-66,155,-66v140,0,249,148,249,304v0,201,-192,392,-372,264v-37,438,-160,823,-289,1176r-197,0r67,-184r58,-175v104,-351,177,-666,177,-1133v0,-130,-36,-239,-93,-309r-4,0r-370,1385r-124,0r-265,-1111r-149,63r0,-204r278,-115r206,913r290,-1110r190,0xm1564,-1028v0,-71,-54,-143,-122,-143v-70,0,-132,77,-132,145v0,72,63,149,132,149v66,0,122,-79,122,-151"},"{":{"d":"737,-884v0,-90,82,-173,174,-173v90,0,173,82,173,173v0,92,-81,173,-173,173v-93,0,-174,-83,-174,-173xm911,-1401v-279,0,-531,232,-528,512v2,188,102,333,220,416v64,45,126,140,126,244v0,159,-141,298,-299,298v-164,0,-302,-136,-299,-298v3,-136,91,-247,203,-283v-181,-254,-148,-611,62,-830v120,-124,292,-218,515,-222v274,-4,525,174,625,381v107,221,87,482,-49,671v109,34,203,146,203,283v0,159,-137,298,-299,298v-210,0,-376,-234,-263,-438v24,-44,55,-80,96,-108v114,-80,210,-230,214,-412v6,-275,-247,-512,-527,-512xm1520,-229v0,-71,-58,-129,-129,-129v-70,0,-130,60,-130,129v0,68,63,130,130,130v69,0,129,-60,129,-130xm560,-229v0,-68,-62,-129,-130,-129v-71,0,-129,58,-129,129v0,70,60,130,129,130v67,0,130,-62,130,-130"},"|":{"d":"178,103r0,-1771r157,0r0,1771r-157,0","w":514},"}":{"d":"1083,-610v0,92,-80,173,-173,173v-92,0,-173,-81,-173,-173v0,-90,79,-173,173,-173v89,0,173,78,173,173xm430,-1564v159,0,302,140,299,299v-2,107,-54,193,-126,244v-118,83,-217,228,-220,416v-4,281,250,517,527,512v320,-6,601,-285,514,-633v-31,-123,-105,-225,-200,-291v-73,-50,-129,-129,-133,-248v-5,-159,140,-299,299,-299v162,0,303,140,300,299v-2,136,-93,250,-203,283v135,190,157,445,52,666v-100,211,-350,389,-629,385v-223,-3,-396,-97,-515,-220v-212,-220,-243,-572,-62,-831v-110,-34,-200,-148,-202,-283v-3,-159,136,-299,299,-299xm1261,-1265v0,70,59,130,129,130v66,0,130,-62,130,-130v0,-69,-60,-129,-130,-129v-71,0,-129,58,-129,129xm300,-1265v0,66,61,130,130,130v67,0,129,-60,129,-130v0,-71,-58,-129,-129,-129v-70,0,-130,60,-130,129"},"~":{"d":"247,-1073v0,-382,302,-655,712,-584v39,7,75,19,110,36v-187,94,-341,294,-341,548v0,259,156,453,341,548v-96,43,-196,67,-329,44r0,219r257,0r0,143r-257,0r0,222r-164,0r0,-222r-257,0r0,-143r257,0r0,-270v-147,-74,-253,-204,-305,-363v-17,-52,-24,-112,-24,-178xm1226,-190v0,-90,82,-174,174,-174v93,0,174,82,174,174v0,95,-79,174,-174,174v-93,0,-174,-80,-174,-174"},"\u20ac":{"d":"1152,-1178v-52,-127,-121,-236,-295,-235v-126,0,-219,59,-280,176v-42,80,-65,175,-77,287r634,0r-56,135r-586,0r-1,129r534,0r-56,135r-472,0v4,177,78,333,182,411v50,38,110,55,178,55v127,0,248,-154,292,-239r72,0r0,324r-69,0v1,-54,-24,-127,-71,-94v-68,48,-146,92,-247,94v-318,6,-523,-242,-562,-551r-142,0r55,-135r74,0r-2,-65r2,-64r-129,0r56,-135r87,0v41,-300,243,-547,561,-547v94,0,178,24,252,75v48,33,70,-22,66,-79r69,0r0,323r-69,0","w":1351},"\u00a4":{"d":"1152,-1178v-52,-127,-121,-236,-295,-235v-126,0,-219,59,-280,176v-42,80,-65,175,-77,287r634,0r-56,135r-586,0r-1,129r534,0r-56,135r-472,0v4,177,78,333,182,411v50,38,110,55,178,55v127,0,248,-154,292,-239r72,0r0,324r-69,0v1,-54,-24,-127,-71,-94v-68,48,-146,92,-247,94v-318,6,-523,-242,-562,-551r-142,0r55,-135r74,0r-2,-65r2,-64r-129,0r56,-135r87,0v41,-300,243,-547,561,-547v94,0,178,24,252,75v48,33,70,-22,66,-79r69,0r0,323r-69,0","w":1351},"\u00c7":{"d":"1081,-487v-114,1,-204,80,-204,207r0,280r-124,0r0,-835v-206,-14,-395,-171,-476,-333v-33,-67,-50,-138,-50,-211r124,-81v-25,284,204,506,465,506v263,0,492,-224,465,-506r123,80v-3,173,-83,289,-183,386v-96,93,-212,145,-343,159r0,287v49,-53,117,-80,203,-80v248,0,390,303,295,566v-20,57,-39,101,-61,131v-49,65,-26,219,66,219v51,0,97,-69,94,-124r120,-48v4,159,-74,300,-214,300v-219,0,-265,-300,-152,-453v33,-45,57,-109,57,-184v0,-128,-87,-267,-205,-266xm565,-1418v0,-131,117,-250,250,-250v133,0,250,119,250,250v0,136,-118,250,-250,250v-132,0,-250,-119,-250,-250xm957,-1418v0,-73,-67,-142,-142,-142v-78,0,-141,68,-141,142v0,76,65,142,141,142v76,0,142,-68,142,-142"},"\u00d6":{"d":"1479,-1668r-1031,1771r-141,0r1030,-1771r142,0xm308,-1035v67,1,138,-5,138,-64r0,-367r-138,0r0,-67v83,-13,180,-62,183,-135r77,0r0,569v-2,48,52,65,105,64r0,87r-365,0r0,-87xm1514,-104v0,112,-117,207,-234,207v-104,0,-190,-60,-219,-135r103,-51v16,46,53,69,110,69v77,0,116,-33,116,-99v0,-76,-72,-103,-157,-98r-48,-101v103,6,205,-4,205,-98v0,-65,-39,-98,-116,-98v-47,0,-81,18,-102,53r-109,-41v31,-72,115,-130,217,-130v133,0,233,94,234,207v0,63,-27,116,-81,158v54,42,81,94,81,157"},"\u00dc":{"d":"1475,-1668r-1031,1771r-142,0r1031,-1771r142,0xm304,-1035v67,1,137,-5,137,-64r0,-367r-137,0r0,-67v81,-13,181,-62,183,-135r77,0r0,569v-2,48,52,65,105,64r0,87r-365,0r0,-87xm1519,-616r-171,719r-113,0r144,-604r-328,0r0,-115r468,0"},"\u00e7":{"d":"1305,-1668r-1031,1771r-142,0r1031,-1771r142,0xm764,16v64,-1,137,-4,137,-63r0,-367r-138,0r0,-67v68,-12,132,-43,167,-85v11,-15,17,-31,17,-50r76,0r0,569v-1,47,51,64,106,63r0,87r-365,0r0,-87xm1324,16v64,-1,137,-4,137,-63r0,-367r-137,0r0,-67v81,-15,177,-58,183,-135r77,0r0,569v-2,47,53,64,105,63r0,87r-365,0r0,-87xm434,-1667v153,0,298,145,221,295v-11,21,-26,41,-45,59r-211,199v-40,36,-33,74,31,73v51,0,100,4,126,-28r49,-60r73,39r-84,142r-369,0v-5,-92,17,-151,63,-199r237,-255v17,-18,26,-37,26,-58v-2,-102,-198,-109,-228,-25r-115,-45v30,-74,120,-137,226,-137"},"\u00f6":{"d":"1692,-107v0,115,-116,214,-234,214v-110,0,-215,-78,-231,-180r91,-27v9,59,67,105,133,105v73,0,140,-64,137,-136v-2,-76,-62,-138,-143,-137v-44,1,-84,14,-112,40r-85,-41r62,-347r355,0r0,104r-280,0r-31,192v164,-73,338,49,338,213xm222,-1035v67,1,138,-5,138,-64r0,-367r-138,0r0,-67v80,-13,184,-64,184,-135r76,0r0,569v-2,48,52,65,105,64r0,87r-365,0r0,-87xm761,16v65,-1,138,-4,138,-63r0,-367r-138,0r0,-67v68,-12,132,-43,167,-85v11,-15,17,-31,17,-50r76,0r0,569v-1,47,51,64,106,63r0,87r-366,0r0,-87xm1303,-1668r-1031,1771r-142,0r1031,-1771r142,0"},"\u00fc":{"d":"224,-1035v67,1,138,-5,138,-64r0,-367r-138,0r0,-68v81,-10,183,-65,184,-134r76,0r0,569v-2,47,53,65,106,64r0,87r-366,0r0,-87xm762,16v65,0,137,-6,137,-63r0,-368r-137,0r0,-67v63,-9,133,-43,166,-84v11,-15,17,-31,17,-50r76,0r0,569v-2,48,54,64,106,63r0,87r-365,0r0,-87xm1312,-1668r-1031,1771r-142,0r1031,-1771r142,0xm1340,-258v18,-32,81,-51,126,-52v111,-3,228,95,228,206v0,116,-112,210,-234,210v-118,0,-231,-90,-231,-208r0,-300v2,-114,106,-213,236,-214v106,-1,189,49,229,122r-115,25v-32,-34,-46,-49,-111,-49v-75,0,-128,49,-128,130r0,130xm1576,-102v0,-59,-53,-112,-114,-112v-60,0,-115,50,-115,112v0,65,53,112,115,112v62,0,114,-49,114,-112"},"\u00a0":{"w":455}}});
